{
  "layers" : [ {
    "size" : 9
  }, {
    "size" : 15,
    "activationFunction" : "RELU",
    "weights" : [ [ 0.4542989391226231, 0.2735683667978349, -0.3835325598601136, -0.015858570949977457, -0.3352318336252984, 0.6648690633876937, 0.29755695074841493, -0.12215919062990475, 0.3933216095415791 ], [ 0.43071351881716985, 0.22073843517882732, -0.21348194397456097, 0.6500729625087966, -0.2179008145435316, -0.15390197143222095, -0.05382226165050485, 0.2028476937924011, 0.14006402268739834 ], [ 0.2627629762191162, 0.24296891394553036, -0.35830431863945555, -0.4651305898231674, -0.03793863758069543, 0.26825410934829585, -0.28041650580356264, -0.13783551651607687, -0.625442734952493 ], [ 0.26369376692406127, -0.24810818892789516, -0.6108670524320766, 0.40510205477576344, -0.10310697160313785, -0.23201668704929776, -0.3315404451893328, 0.39793867258706445, 0.4356464224371103 ], [ 0.394412314908471, -0.3912260873622141, 0.30583546891603663, -0.16942927936116095, -0.13846041343188875, -0.6346737968030997, 0.37185511453699316, 0.5809608869926834, -0.0684547194425683 ], [ 0.6358534381641946, 0.5227215812616033, 0.2661451272859515, -0.28831736609103426, -0.23445279334191577, 0.5114586791949846, 0.35929959452063487, 0.5733168897904231, 0.40735046406623415 ], [ -0.2608162427491041, 0.2332788201581137, -0.025093415649698473, -0.35732436810299184, 0.12457326552168968, 0.5317402941017214, -0.634886859360253, 0.43804488443443657, -0.004938451664359502 ], [ -0.426087419207627, 0.44545691497346607, 0.5843812732830553, 0.034426851004431866, 0.40695413548386394, -0.24129000280062238, -0.21699153952344963, -0.39562564796723526, 0.17553938851713727 ], [ 0.3703517707522059, 0.4254761019531756, 0.5663514086430156, -0.5470346732005692, 0.2212402638149402, 6.074098681660544E-4, 0.029669987576907943, -0.07842803383265472, 0.603991017740444 ], [ 0.07444511863890103, 0.6085356818132112, -0.2536196411856957, 0.2017574770878192, -0.34815387105891205, -0.2814022268647508, -0.420891802652153, -0.5749971630551437, -0.6704293601458142 ], [ -0.6519880818717703, -0.578266226796352, -0.3582316003942973, -0.6724614264585302, -0.5327210555132628, -0.08225913596926852, -0.2123888368909688, 0.3091045673318123, 0.667887530890775 ], [ -0.26553045676067044, 0.6056719905719633, -0.07086374874961869, -0.28605103737589355, -0.5610598968728908, -0.20266813129897823, -0.1721282836893458, 0.488942388250132, -0.12993317099128524 ], [ 0.2829007111509637, 0.0711778364626965, -0.4395204144689904, 0.39626508430936597, 0.250791454074507, 0.01738130550920887, 0.02687409424075838, -0.028208853741871067, -0.602068945514864 ], [ -0.016978976810766766, -0.3383522030723655, -0.3895439828801669, -0.21222436456202187, -0.3614417873944214, -0.6423853312653011, -0.17703626874495434, 0.08495038648986633, 0.34080006535995533 ], [ -0.03297805862991732, 0.4551252561407819, 0.0284691999012348, 0.3968858455630629, 0.35083642144999067, 0.27434749144540566, -0.3338385049392494, 0.5976005273930262, -0.4768185721672192 ] ],
    "biases" : [ -0.0507788303702641, -0.04061447593398145, -0.051429229343750354, -0.07747897503031613, -0.06293506150902285, -0.04529426652740012, -0.061631863319634765, 0.011125291986163757, -0.08055238734051096, -0.037755259713542745, -0.05234041131985789, -0.026067986312867143, -0.04145803441791124, -0.06395961579914612, -0.03461674608686606 ]
  }, {
    "size" : 11,
    "activationFunction" : "RELU",
    "weights" : [ [ -0.3164609459331068, -0.01020336469104733, -0.5706494685822396, 0.016345887890107914, 0.33097098238341593, 0.2796428126067817, -0.19834653919893652, -0.0568582098195683, -0.05533149367633997, -0.666113700651618, -0.11674490756429227, 0.08007683212673762, -0.27540009467902565, 0.020131933803663925, -0.539585415231877 ], [ 0.3816401727821065, 0.6462400344655609, 0.2967258951065911, -0.10160320945147584, 0.330988603076698, 0.3358017426386196, -0.039239544898473776, 0.6539733595258646, -0.07315336953384273, 0.27831786269038983, 0.4491823958811802, -0.5342838507008908, 0.38748070251882044, -0.5777273173563157, 0.2699912887759834 ], [ -0.015091031879028136, 0.14559980881553847, 0.352140643382266, 0.16819353869332038, -0.39993038170812, 0.30362153835189043, -0.6660148552069138, -0.15245401220477317, -0.1922498597172251, 0.26134631192776014, 0.06047020406073984, -0.20811027829005121, -0.6319157711121909, 0.3230817322720503, -0.29640898713283304 ], [ 0.48550791072654065, -0.6181594487453151, 0.11328215362395157, -0.08840511712373907, 0.5944990902179392, 0.30594127205856714, 0.13909135949982135, 0.7738972696151982, -0.3326532126661217, -0.13799093345996327, -0.17734920183804648, 0.03933999052162718, 0.3989216227962732, 0.2627548404825518, -0.37578660152129545 ], [ -0.04542055506139441, 0.1783743862872806, -0.651043519532962, 0.4134088946713727, 0.26487094385028553, 0.600364312302315, -0.06741092511429041, 0.29264395448294794, -0.4965356838384052, 0.08727226690718484, -0.3115052787519723, -0.07225964585050315, 0.363095765310779, 0.016244599897086483, 0.0991991929362313 ], [ -0.2245426453536801, 0.3202851014973403, 0.12659951712175568, 0.04444941817297297, -0.20571571823548915, 0.6247566387194831, 0.2804232755934124, 0.24972104278972024, 0.1851796890872624, -0.6863936098573585, -0.37390778118283463, -0.08055817959170863, 0.1454634018231146, -0.2007190845987456, 0.02256577452582175 ], [ -0.4462496329344404, 0.15308641296587533, -0.16613008311582045, 0.2553022102607704, -0.07391298369008734, 0.5964378280954347, 0.5452044761164784, 0.45751586208883255, 0.15602050319664756, 0.48839814532761305, -0.3803199383038473, 0.4141931644491972, 0.21883311754918242, -0.2790670225509403, -0.6735410567346855 ], [ 0.06269062088784168, 0.015888703803134698, 0.6316436694455181, 0.3610037291775064, -0.5379068390653323, -0.021358674867503293, -0.5945648168512759, -0.6757307917250908, -0.1211607699945073, -0.04825214770789963, -0.3549199813177135, 0.6108898939015698, 0.5123642125933249, 0.3567431802848395, 0.4105347853482017 ], [ 0.19298309960769214, 0.640447150709346, 0.22162944626605954, -0.44309141823121734, 0.5993385167234803, 0.0015293612356283744, 0.015916490529785002, -0.4564772989909406, 0.3295398982034848, 0.5338788609834896, -0.6060216840854549, -0.36267726336239303, -0.10874742355920007, -0.7095916139308989, -0.4570934849614366 ], [ -0.6721948561744986, 0.44319192530098633, -0.0021231403240922955, -0.5307787853679153, 0.11892437524237182, 0.5590232864475335, 0.2975451935050769, -0.16689410884179748, 0.22677027497277372, 0.5740921211739555, -0.30387897393855406, 0.3662309328742412, 0.19886996792917155, 0.5596377465616879, -0.4665323259164357 ], [ 0.3083195143483194, -0.05106155586842452, 0.16598008886089913, 0.07900221729243531, 0.22397946180205494, 0.055122325276472546, 0.41491471372848865, -0.6643309880679507, -0.32174470639120184, -0.5735597643620535, -0.08612834088151997, 0.5314029771951962, 0.06195785226445398, -0.0031168892720155068, 0.27793610391370627 ] ],
    "biases" : [ -0.02847047056416924, -0.2453294908208044, -0.12761263490742875, -0.15512321925775915, -0.20826967631462787, -0.09788793486579273, -0.15732676754589517, -0.22825739271744905, -0.12510123594988812, -0.28025355524190254, -0.16998591186218986 ]
  }, {
    "size" : 9,
    "activationFunction" : "SIGMOID",
    "weights" : [ [ 0.40145768472082893, -0.7055322204851758, 0.18993308369541723, -0.6995327154125125, 0.027676564282415442, -0.7032042182650604, -0.8002334522641974, 0.24640786817460344, -1.086995320954559, -0.09586447985113014, 0.1637931940770604 ], [ 0.602831134188188, 0.20785195416028063, -0.06438372966450426, -0.26300605426137375, -0.5071159743512434, 0.3693367285188527, -0.10956261594034303, 0.07991671950451736, -0.08219577853690933, -0.48851965856249513, 0.12842298330654348 ], [ 0.03411022918388055, 0.4242658579921337, 0.1217074077922691, -0.21828903729484395, 0.2534420159969712, -0.4905105002716565, 0.4177506846014267, -1.1232209013357737, 0.01712575073956432, -0.007460660379682104, 0.15174785924829237 ], [ -0.2575863499827119, 0.376896585138922, 0.02371424508119389, 0.4715758216669486, -0.14114708150150712, 0.027323907052935782, 0.06614616085485484, -0.6386415510519046, 0.7811256146341159, 0.27691329197038067, 0.49547530609303253 ], [ -0.20092828140861846, -1.3346283805912043, 0.24816735187273126, -1.132848114998185, -0.08334579679963423, -0.7561859121058994, -0.97823945740732, -0.5844722232710718, 0.7088978086336276, -0.3457376314639867, -0.4836982766191638 ], [ -0.19332115542184958, -0.04874642045575176, 0.43939650538063685, 0.082395542374278, 0.5798390405674329, -0.8873245720653506, -0.7170711588563119, -0.7124959343296647, -0.47134677087263227, -0.22654350596612965, -0.47414169889087165 ], [ -0.1525355329792017, -0.547984608593602, -0.230027452633013, -0.5649466191948126, 0.07268576829907285, -0.04254396432282994, -0.13706049117067248, -0.16645650366547593, 0.9631139021736119, 0.3556175290606739, 0.1345594485446187 ], [ -0.6013511402966119, -0.39515067376497226, 0.2389465140870749, -0.632229144531918, -0.4395533086691543, -0.24538291991852726, -0.6108252749410505, -0.472633806095043, -0.9389881575636773, -0.4586649934029667, -0.6619626976241608 ], [ -0.06526394010239558, 0.20711353644204653, -0.25267141991484726, 0.06459610877112265, -0.20688925207663608, 0.3775013999194473, 0.6073366923239968, 0.9401341484250195, -0.48817645432007584, -0.3471278773111046, -0.06200125378202348 ] ],
    "biases" : [ -1.0547540960237796, -1.8227060025512518, -1.7438613352188699, -2.3276976314747793, -1.0723832907413489, -2.879523188618468, -1.6149042613946476, -2.5448391789037608, -2.2009208689004316 ]
  } ]
}
