[{"id":0,"previousId":null,"nextId":1,"size":3,"activationType":null,"weights":null,"biases":null},{"id":1,"previousId":0,"nextId":2,"size":28,"activationType":"RELU","weights":[[-0.2314302860486817,0.26010912167090977,0.2684795676041027],[-0.10167308657344065,0.24655206806018887,-0.2968804995333422],[0.10453271279670023,-0.38076815206327735,-0.2636047810247919],[-0.2586682102203539,-0.21227875948402258,-0.35636125507833244],[-0.307164333854659,-0.36189642091766727,-0.2711658523141105],[-0.4265818738331587,0.07699819734567565,-0.4353155500327543],[0.3258525073612793,0.3260693408094421,0.3883428751785399],[0.4044689938523916,0.13892705460134575,-0.21376633575075496],[-0.23229694464639664,-0.16999889293436832,0.02143852719567707],[-0.2960324917183687,0.407710706070549,-0.23739533437181012],[0.070519827734779,-0.10337629336621224,-0.3301766070094342],[0.28849647305575027,0.35742660039444724,-0.10104118626164338],[0.3800087900786218,-0.1062118853309007,0.29423365029384957],[-0.38863107829813914,0.057593695939703204,-0.26171231834487474],[0.017326804799830897,0.4304931109518331,0.003955965766736791],[-0.357114634991725,-0.055773292414053766,0.19574386471817934],[0.28101951721795854,0.15647368510882004,-0.2968512527317037],[0.2922223652993547,-0.12304428296079184,-0.43959656993662494],[-0.01590476849127448,-0.03724002413760108,0.2038690594011084],[0.18982761234732687,-0.30143158076524634,0.2348203046119573],[0.01997019007790013,0.27668480712351623,-0.4059426731538749],[-0.3815201214712944,-0.30472706662675,-0.2992248389388623],[-0.3484140083924111,-0.23716272469108837,0.14937308228856033],[-0.27164279144947845,-0.012254433568199219,-0.20185611310218968],[0.2832075675531956,0.29251300065126457,0.015603257739124243],[-0.41046363455899115,0.11454150811254121,0.17188433794289731],[-0.05431076969761983,0.2071022287592425,0.3255124283207311],[-0.30084229456595984,0.0010964998432719253,0.4210979805885596]],"biases":[0.0,0.0,0.0,0.0,0.0,0.0,0.0,0.0,0.0,0.0,0.0,0.0,0.0,0.0,0.0,0.0,0.0,0.0,0.0,0.0,0.0,0.0,0.0,0.0,0.0,0.0,0.0,0.0]},{"id":2,"previousId":1,"nextId":3,"size":2,"activationType":"RELU","weights":[[0.2999377955851733,-0.42736569441414896,-0.21237067738971352,0.07260286276906991,-0.26805277863668997,0.035408456677065936,0.16189478796035772,0.4208049331505923,-0.06135505199233088,0.43865874085514056,-0.4210985583698,-0.008287197386807665,0.23746011096070163,0.23364348433149285,0.20252689959634174,-0.11540783420402423,-0.3071318151338826,0.2249516425199699,0.026253339219298122,0.003998966201371801,-0.2278517093817475,0.04832196165451791,-0.25494103225055365,0.4448858882181457,0.22073154597701994,0.24254380385539343,0.391791993069707,0.058115469010992404],[-0.285890235383695,0.13774530174159205,-0.07952259557208413,-0.030918282921989615,0.1490470816287165,0.35539420660709575,-0.0013005252598937145,-0.4419964796613346,0.3644674131020246,-0.2860594041427675,0.06782289664700647,0.13242506014138,0.42217999960420105,0.05958458069301964,0.22903738844187072,-0.07233144570335182,0.022958618533410635,0.3372360996731092,0.26221336175876175,0.3309143127351919,-0.3782867046091127,-0.4317198691685106,-0.3928999039025525,-0.26411249537355397,-0.3802047064561486,0.10153470854609992,0.16013084546827994,-0.213397966048237]],"biases":[0.0,0.0]},{"id":3,"previousId":2,"nextId":4,"size":4,"activationType":"RELU","weights":[[-0.2562549378512984,0.39014910253582014],[-0.6707166675890919,0.8615641469091839],[-0.2505116266949028,-0.8687997988621166],[-0.6529540169440189,-0.3646510919295971]],"biases":[0.0,0.0,0.0,0.0]},{"id":4,"previousId":3,"nextId":5,"size":12,"activationType":"RELU","weights":[[-0.3569755539066697,-0.5732880211859026,-0.35016691123522276,-0.5952209933656182],[0.5410995023785026,-0.43086701275029915,0.18004211393787484,-0.2617224399862101],[0.2950656121119677,0.3370002965367421,0.3444362160627432,0.15892525803361068],[0.5469803286886605,0.49675444215420983,0.011600297542533222,0.038218158730341956],[-0.054903991593242885,-0.19936164920892152,-0.124167863667761,-0.22234773325754653],[0.17813165441691003,0.16373064817162009,-0.23417506756574252,0.5177906404590296],[-0.513126457349781,-0.30694735025595726,0.013919656531225622,0.05281216808036204],[0.16913730104476332,0.30500209446357396,-0.3885482679559349,-0.5016926611407477],[0.14719407773260695,0.45088732704068146,0.18674408851945679,0.19608320970412796],[-0.38859748279204526,0.6109806015719574,-0.33194009105916283,-0.38393034656761255],[-0.2809149972956719,0.06775598778296565,-0.019146980187822682,0.29432549177844536],[0.2363243922449364,0.5590970927521051,-0.028378281329468624,-0.5368507330119511]],"biases":[0.0,0.0,0.0,0.0,0.0,0.0,0.0,0.0,0.0,0.0,0.0,0.0]},{"id":5,"previousId":4,"nextId":null,"size":2,"activationType":"SIGMOID","weights":[[-0.31743459002113483,0.5787858490985078,-0.25976217346228603,-0.14757271327131183,-0.19211366331584256,-0.5168848424250743,0.26309903018202097,0.5016255826270253,-0.06817159778131521,-0.3448662379062887,0.10130543542796744,-0.10357853766233627],[-0.1318534013018554,-0.33031002399695353,0.1795848095856859,-0.3849168568897958,-0.09983670055164207,0.17742638713918468,-0.1021181808976791,0.025583810260001227,-0.5838582827953755,-0.6155560950353753,-0.10050452318206227,-0.05231578253010927]],"biases":[0.0,0.0]}]