{"layers":[{"id":0,"previousId":null,"nextId":1,"size":3,"activationType":null,"weights":null,"biases":null},{"id":1,"previousId":0,"nextId":2,"size":28,"activationType":"RELU","weights":[[0.41211778303026797,0.1392233914089887,-0.4108236741129022],[-0.34280425789842806,0.08232758125279044,0.07907077264872026],[-0.1520804888206313,0.05542177561711431,0.3483383257071739],[0.16815598350092992,0.14719674263343857,0.32770875693160634],[-0.19111971681033912,-0.2733293383556058,-0.27639841964590417],[0.20602484598913146,0.07616381435923852,-0.19282423147575906],[0.19201833052296108,0.39719457535863695,0.15361660382863623],[0.1785842403481947,0.39563836947866865,0.4279398150282339],[-0.2578272300528817,0.016711937076531513,0.18131885483976656],[-0.24242533530657898,0.0042874855457146754,0.25408363567062514],[0.4238327795521362,-0.0026168993343463898,0.2860085284159533],[0.16197590209259788,0.41865140716030497,0.0853763170924749],[0.32710520808704474,-0.20962074055591776,0.01826803579903663],[-0.1742556493029841,-0.4017138352306273,0.13445321457152187],[0.4211194277788581,0.0771292458119765,-0.15751101419080232],[-0.402328436515899,-0.24351816411150912,-0.31383489992318536],[-0.26715124437972715,-0.2454424283298137,0.08518406062102518],[-0.4338195437434399,0.1339712079745023,-0.37808433314907086],[-0.18113241595625157,-0.13666931458391007,0.3474620156022124],[0.22773917621205825,-0.3375569079215158,-0.16471007599401305],[0.20725621531522026,0.26094403681109674,0.13413059276713496],[-0.13482936933839962,0.037274589875147646,0.4014330362116825],[-0.17200217199322881,0.15416936794376473,0.08648704746592156],[0.23713951202254108,-0.32461501766337003,0.20161115948929714],[-0.04602011424520086,0.40477971942768337,0.024450453980383646],[0.05444370871195753,-0.20000719666578184,-0.25552330453171257],[-0.09141004385192031,0.3930577944509905,-0.28217252810759463],[0.14529152623266745,0.31911708687603374,0.042891493862469154]],"biases":[0.0,0.0,0.0,0.0,0.0,0.0,0.0,0.0,0.0,0.0,0.0,0.0,0.0,0.0,0.0,0.0,0.0,0.0,0.0,0.0,0.0,0.0,0.0,0.0,0.0,0.0,0.0,0.0]},{"id":2,"previousId":1,"nextId":3,"size":2,"activationType":"RELU","weights":[[0.044378670593055614,0.16600855397578207,-0.24298744784327964,-0.058136600241610825,0.07837979402911532,0.35537281662794185,-0.3730421777855285,0.005244793755075194,-0.2673955903633111,0.12123569249825028,-0.1956800875704356,-0.11325849193199167,-0.1903769433028506,0.09610513976426838,-0.32978310172998454,0.030247156946072162,-0.24203448609472628,0.2981865863768759,0.41563958667073764,0.4409822735479042,-0.05767665817239065,-0.039833764287024453,-0.16613478572421853,-0.1911755763182395,0.32785925588876685,0.3433760890978893,0.32486325829399254,-0.41028723931104105],[0.21319932496569316,0.32853356705560177,0.23614314161281902,-0.08930389171399794,0.34208325075342727,-0.16977335811862493,-0.22477616161937772,0.027128936281219485,0.2985071771080473,0.19641788954122075,0.3687154667479985,0.13145139988696775,0.30602998846950236,-0.05448992964448235,0.09198480231948714,0.41937920641793747,0.2742369551979671,-0.14913005452947242,-0.1475981544963444,-0.3925986761289251,-0.38895430888832294,-0.03172037944460043,0.2847896404713356,0.3448205180854109,0.3252239681370379,-0.13917824952496471,0.26773442640460376,-0.3265319371976788]],"biases":[0.0,0.0]},{"id":3,"previousId":2,"nextId":4,"size":4,"activationType":"RELU","weights":[[0.41715027955671613,-0.38097361675225927],[0.30325465626285,0.8646044068818288],[0.30210798086229684,-0.6495682164683354],[-0.09553635337932631,-0.4367889331310897]],"biases":[0.0,0.0,0.0,0.0]},{"id":4,"previousId":3,"nextId":5,"size":12,"activationType":"RELU","weights":[[-0.5338122801530812,0.20697615278548198,-0.39110538737467715,0.10552977200132607],[-0.11653043765537224,0.359438013984951,0.3845061506368147,-0.3215688794150635],[0.4456789086465289,-0.4812767361688324,-0.224363602141801,-0.10592166146508075],[0.5646154927403157,-0.522884113213189,-0.030761224016954802,0.4064331736254536],[-0.5423890095141493,-0.0788739631983928,-0.41791758018158603,-0.3358266860649477],[0.17262308457508213,-0.5356660227111789,-0.5766527822783739,-0.4977612137689886],[0.2887949780975714,-0.544869408092255,-0.5729885310304483,-0.5992892191131802],[0.5380716797331058,-0.35501872348346875,0.5451064396459939,0.34229697564058414],[-0.6083282701689339,-0.17314316892764453,-0.42113726243464705,0.5545872619456489],[-0.5316345561887066,-0.2641728412833893,0.20958203472644799,0.24860163845076177],[0.44676779580407766,0.39234213534798634,0.47089720504069077,-0.18875059722376042],[0.4039704597932918,-0.5987106476008361,-0.5832675981240061,0.11950900729941005]],"biases":[0.0,0.0,0.0,0.0,0.0,0.0,0.0,0.0,0.0,0.0,0.0,0.0]},{"id":5,"previousId":4,"nextId":null,"size":2,"activationType":"SIGMOID","weights":[[-0.2057315904824395,0.45621562020955886,-0.0930969107696531,-0.05489003806202575,0.19272904119210954,0.3770789611041381,-0.25458157688930205,0.14581887437028385,0.5896409713783048,0.627542559179411,-0.3683052197776052,-0.5071634501579765],[-6.376939351190325E-4,-0.5878776670530993,0.18695401998144245,0.4718036362455784,-0.5466344068927519,-0.5750565613100714,-0.6217676641758869,-0.3543830278695503,-0.19827530314862835,-0.2209826684262169,0.2828487515671728,0.4116538749870169]],"biases":[0.0,0.0]}]}