{
  "layers" : [ {
    "size" : 3
  }, {
    "size" : 28,
    "activationFunction" : "RELU",
    "weights" : [ [ -0.1927748220748261, 0.05037825459428358, -0.024850846013472427 ], [ -0.08446039070288319, 0.19172849400496422, 0.14141660107679205 ], [ 0.20652139049410362, 0.045372607690804145, -0.3944646697134607 ], [ 0.11421237973213921, 0.43335703077842175, 0.008493343464994418 ], [ -0.16205577867534782, 0.2710320314544337, -0.1395603578014593 ], [ -0.16388182798497536, 0.25882874810674367, -0.4236591489496741 ], [ -0.35147273162553533, -0.1745442014082259, -0.22742349951163188 ], [ -0.018953646085333564, -0.20530949043492827, 0.3011536490437459 ], [ 0.23054420884255838, 0.01706212330727258, 0.10224153587772272 ], [ -0.30498745862861487, 0.17150630237875725, -0.16590212833899048 ], [ -0.3737166672818625, -0.12021342569101107, -0.29806549547468214 ], [ -0.19574925859840278, 0.3952670062038715, 0.17895503432874077 ], [ -0.251202448115688, 0.11365632569299239, -0.046805254306977295 ], [ -0.1777190528985766, 0.03516876058672336, 0.016624980473779027 ], [ -0.3315566067346595, 0.03146861477927382, 0.2910026447741009 ], [ -0.35904203267930007, -0.42820261930466424, -0.10564731650011117 ], [ 0.27746301106078713, 0.19266812577724274, 0.40222115812718334 ], [ 0.2640319381884187, 0.21344130017058044, 0.12096687582541515 ], [ 0.18812577916767842, -0.25721675022653634, 0.12320167292656908 ], [ -0.22567227282255992, 0.11715774912357874, 0.1900908883887356 ], [ -0.20564025055855925, 0.28065900543041017, 0.21450179710301437 ], [ -0.16045963031313565, -0.14146633813689952, 0.30182133550630136 ], [ 0.1515019788975513, -0.19868817695120483, -0.33293347152557307 ], [ -0.01554245542079885, 0.11514904883820437, 0.4120258500816249 ], [ 0.3504878585443309, 0.33960692917208696, 0.2941677539981196 ], [ 0.22626116184518924, -0.291007921143559, -0.31299356461369976 ], [ 0.17460583030518112, 0.28177851680599425, 0.11726050894149115 ], [ 0.00591988082132161, -0.2733263119295989, -0.2502547272586641 ] ],
    "biases" : [ 0.0, 0.0, 0.0, 0.0, 0.0, 0.0, 0.0, 0.0, 0.0, 0.0, 0.0, 0.0, 0.0, 0.0, 0.0, 0.0, 0.0, 0.0, 0.0, 0.0, 0.0, 0.0, 0.0, 0.0, 0.0, 0.0, 0.0, 0.0 ]
  }, {
    "size" : 2,
    "activationFunction" : "RELU",
    "weights" : [ [ 0.03344148555238263, 0.20410820738373903, -0.3127448548373566, -0.3454897870407369, -0.019089610718817984, 0.368701543864568, -0.14278486086276548, 0.269692087190462, -0.3563354756030822, -0.3853350293476131, 0.1518381451908788, -0.20483754864437037, -0.25355047469920944, -0.1627639689963708, -0.3708893884442215, 0.3531919427792385, 0.007020309999828611, 0.2760088984541046, -0.2579647045096176, -0.13864230211205475, 0.4274847202350661, 0.05091375016483152, 0.13678313964824518, -0.42304012148349857, 0.44039470494959254, 0.13952850832554586, -0.08406595921039461, 0.19475578654841308 ], [ 0.0057598691384138645, 0.10954516112232882, -0.2686709388481034, -0.37887926922086, 0.3334423243611201, 0.4161572176380839, 0.3972417497099221, -0.286444506252343, 0.1737032966953258, -0.13183451395903495, -0.3553471597433427, 0.08208510213145737, -0.42827718213255306, -0.30699048336783974, 0.17449158003785814, -0.17975565684564376, -0.38741601333800424, -0.20715413797411752, -0.257682923191425, 0.08064435290791094, 0.088959612497572, 0.3046037583610087, 0.22121919244900645, -0.16692585591262576, -0.40469732962879745, 0.1187465082534146, 0.34413779276887635, -0.01986731558450955 ] ],
    "biases" : [ 0.0, 0.0 ]
  }, {
    "size" : 4,
    "activationFunction" : "RELU",
    "weights" : [ [ -0.4232651756002239, 0.6964977407204196 ], [ 0.3032065869224376, -0.08062511546812412 ], [ -0.7680234231581111, -0.6383928421680887 ], [ -0.5034458660100269, -0.3269775702950428 ] ],
    "biases" : [ 0.0, 0.0, 0.0, 0.0 ]
  }, {
    "size" : 12,
    "activationFunction" : "RELU",
    "weights" : [ [ -0.3928286527790227, -0.1690653824687, 0.15818344553098918, 0.22835623431925278 ], [ -0.42410571925198504, -0.008857598808628908, 0.42386500698809115, 0.48467145214595897 ], [ 0.21793197263499264, 0.5045280113746986, 0.060374778437634946, -0.06746983083870006 ], [ -0.022254312486748584, 0.4382970848889385, 0.19041481616335576, -0.14214493642459913 ], [ -0.03607740648035218, -0.22890906509044923, -0.23360846263732316, -0.30416330084349347 ], [ -0.3489259424802551, -0.27779569086330885, 0.5318906631889317, 0.5522053710047414 ], [ -0.21964101237328398, 0.22316106223003696, -0.44689440452690454, 0.39395282044769586 ], [ -0.421210134665977, 0.27252089064327856, -0.4079277061183699, 0.30490549418701207 ], [ 0.1856923517227712, 0.3856077839113049, -0.5711445823160973, -0.4405872830265034 ], [ -0.05371388902371621, 0.22461601057616853, -0.13408044117008255, -0.13776313503112148 ], [ -0.24604713000571038, -0.4272982895773434, -0.23190202434527885, 0.1538821434310319 ], [ -0.11646909345112955, 0.037524282441735224, -0.07857628612281686, -0.42904272604242316 ] ],
    "biases" : [ 0.0, 0.0, 0.0, 0.0, 0.0, 0.0, 0.0, 0.0, 0.0, 0.0, 0.0, 0.0 ]
  }, {
    "size" : 2,
    "activationFunction" : "SIGMOID",
    "weights" : [ [ -0.30575564462257826, 0.49369533519917397, 0.34509910857156356, 0.6444902206445839, -0.14513805883838982, -0.1428443526588702, -0.5478305466181932, 0.6158832433194308, -0.026698831424485592, 0.14050312342673832, 0.22762024987614016, 0.11390454582924747 ], [ 0.49276474024645656, 0.16018920222972133, 0.6338799023542787, 0.3627564681614346, -0.5752214020648749, -0.328032684587146, 0.0398851002984868, -0.22323868620790932, -0.4586872488221472, 0.3856318278786304, 0.019815970280747996, -0.4637387173820331 ] ],
    "biases" : [ 0.0, 0.0 ]
  } ]
}