{
  "layers" : [ {
    "size" : 3
  }, {
    "size" : 28,
    "activationType" : "RELU",
    "weights" : [ [ -0.0034391049617436, 0.3420055669720791, 0.3395194618864598 ], [ -0.23833569022430715, 0.25869226100515624, -0.3914511180496568 ], [ -0.3105371071259344, -0.2201657495118644, 0.3463494752462703 ], [ -0.33799321730185433, 0.2536447642828849, -0.23919230191566312 ], [ 0.39569475915222657, 0.43808943559276753, -0.2307513105837024 ], [ 0.14686603706308737, -0.07598873937497086, 0.013637347083820694 ], [ -0.06433293449667044, -0.09447358550920187, -0.1341049609730381 ], [ 0.3349646358361931, 0.43211535717305477, 0.4091451927180623 ], [ 0.06948023399659037, 0.24169966961519646, -0.2401275877785725 ], [ 0.23981499944339707, -0.036683162344389564, 0.14502374963657289 ], [ 0.38838252703321335, 0.08523761266037061, -0.03728699283969844 ], [ -0.39245860368310925, -0.2101898288174645, -0.35940161588659814 ], [ -0.03775281090931176, -0.30221304423171, -0.32956240194103253 ], [ 0.1940221151987927, -0.28495767460428856, 0.20905537203398944 ], [ -0.19042907517583785, -0.3087946729434584, -0.0572650535076884 ], [ 0.042405301891242975, 0.15854381483086427, -0.38260569549205525 ], [ 0.17795948724597482, 0.302796839889986, -0.32379756316750763 ], [ 0.1244815008268651, 0.36377298876379743, 0.17630759980465388 ], [ 0.33989316950871035, -0.028397516856602356, -0.1629297595613834 ], [ 0.02070862418065611, 0.279366715086889, -0.42075449943824855 ], [ 0.1965389674831755, -0.06153874985388952, 0.30179131158751843 ], [ -0.43230285058241097, -0.4108679221312003, 0.400726736385639 ], [ 0.1462575072440621, -0.12018898513694126, 0.03463005904632516 ], [ -0.14750309268308764, 0.17407296222742435, 0.1131954046141958 ], [ 0.36543182573206884, 0.36456859922438306, -0.2930226365511127 ], [ -0.3821661951067685, -0.3964492156787257, -0.1971686587266254 ], [ 0.41790919584803216, -0.06348851773346587, -0.3540861829409003 ], [ -0.42000457864143875, 0.2621502286097546, -0.411872497146325 ] ],
    "biases" : [ 0.0, 0.0, 0.0, 0.0, 0.0, 0.0, 0.0, 0.0, 0.0, 0.0, 0.0, 0.0, 0.0, 0.0, 0.0, 0.0, 0.0, 0.0, 0.0, 0.0, 0.0, 0.0, 0.0, 0.0, 0.0, 0.0, 0.0, 0.0 ]
  }, {
    "size" : 2,
    "activationType" : "RELU",
    "weights" : [ [ -0.4350294900663327, 0.3424019994943802, 0.4104862032667862, 0.10826273077848003, -0.2258357647041335, -0.3064552899315688, -0.3040619422879393, 0.017837223232312183, -0.03862262138091743, 0.10534429806387235, 0.2971960344760337, -0.0012129077023740331, 0.20090836862187644, -0.20851093614933558, 0.29572320431460997, 0.054715187510883, -0.09096293570094327, 0.008382560261648464, 0.06330831335361597, -0.2599190113172508, -0.42169892712545237, -0.2748587344865234, -0.4082827954205249, 0.28980201637935077, -0.16741361356438916, 0.09116141076437967, 0.41362740602552295, -0.39164205018781983 ], [ -0.15906774370801408, -0.20160995953230082, 0.4321772195508896, 1.6290602093133044E-4, -0.03668752814045978, -0.3459428697916447, -0.028100728219061177, 0.18845983814340017, 0.2439341791441052, -0.08098703324439732, 0.2677730192352342, -0.0866948062301674, -0.3594379630026079, -0.006308446220226638, 0.03894956725157456, -0.26651649868070276, -0.2127686754301838, -0.10812131472107334, 0.19732452492225294, -0.1090566138827469, -0.16431981378169752, -0.07910368894017217, -0.018117497250142056, 0.2615210844669905, 0.10686047819073485, -0.3467939819366157, 0.33088094727115547, 0.2995628067544285 ] ],
    "biases" : [ 0.0, 0.0 ]
  }, {
    "size" : 4,
    "activationType" : "RELU",
    "weights" : [ [ 0.7687038480768018, 0.8770858871762364 ], [ 0.17110740621371234, -0.049363876469020074 ], [ 0.7583663693079523, 0.5793377710739287 ], [ 0.09207218073239232, 0.8164276558715835 ] ],
    "biases" : [ 0.0, 0.0, 0.0, 0.0 ]
  }, {
    "size" : 12,
    "activationType" : "RELU",
    "weights" : [ [ 0.2047810601037452, 0.09868212719809466, 0.3916559078484487, 0.4258077155250908 ], [ 0.1604281790917712, -0.06810868546074222, -0.2851024183062616, 0.6102832535205911 ], [ -0.5812549777936996, 0.49649889714158246, -0.4391013725275861, 0.5547700115400187 ], [ 0.34634575303240434, 0.1450704587084285, 0.048801261151089737, 0.2746472090174147 ], [ -0.1377940264892108, -0.06432524724204391, 0.5431664346100817, 0.1563144682766644 ], [ -0.29221540996008194, 0.07576317486768724, -0.5453055446956709, 0.46141499572403366 ], [ 0.04755703281998225, -0.5133749256758846, 0.4090351981844187, -0.08718741547690845 ], [ 0.474352380771103, 0.2089414495020928, 0.3223777294230369, -0.30261164085527326 ], [ -0.3557898867073668, -0.42456113393444783, 0.4438388862217537, -0.0920324984838996 ], [ 0.5882219894807625, -0.3466980236978644, -0.1878220645777392, -0.01227767596319529 ], [ 0.4909093118599648, -0.5774807543672525, 0.27123862493185447, -0.46393855838342907 ], [ 0.5004651979449386, 0.10921406727079608, 0.5337106408260461, -0.20966154797470588 ] ],
    "biases" : [ 0.0, 0.0, 0.0, 0.0, 0.0, 0.0, 0.0, 0.0, 0.0, 0.0, 0.0, 0.0 ]
  }, {
    "size" : 2,
    "activationType" : "SIGMOID",
    "weights" : [ [ 0.07893004697479333, 0.5808537876152893, -0.13222916762198222, 0.5201402370242569, -0.3020482104920246, 0.41116604313361127, 0.23940093812702457, 0.5699857524343184, 0.4020647796914625, 0.24854690901073007, 0.6510485661700043, -0.11532305836077716 ], [ -0.6306010170616055, -0.4326098782913772, -0.6533145446900508, 0.2379503620086536, -0.11944880298330451, -0.11857835058179533, -0.27126376797757307, 0.2567500803590722, -0.49297234364047043, -0.1644032778834661, 0.2912445031516502, 0.09603536066688478 ] ],
    "biases" : [ 0.0, 0.0 ]
  } ]
}