{
  "layers" : [ {
    "size" : 3
  }, {
    "size" : 28,
    "activationType" : "RELU",
    "weights" : [ [ 0.33028510553909435, -0.14306666090037679, -0.33275157047647885 ], [ -0.0201614049485358, -0.2988645253386871, 0.2838939145893901 ], [ 0.09468980681993583, -0.39318191466244534, 0.0843210862738098 ], [ 0.1562848189752633, 0.013249054934335536, 0.11365873546145672 ], [ 0.23757444136155131, -0.04855033568066325, -0.3964022117172543 ], [ 0.21178441336955262, 0.4241152537917697, -0.11660452429472634 ], [ 0.1685015196969813, 0.06098334766549324, 0.10864212691815595 ], [ -0.43538667782569895, -0.15408948416213242, -0.39404732583811447 ], [ -0.05770862024271761, -0.3498050197223383, 0.24010616760845588 ], [ 0.0685360080343202, -0.19385909363426154, 0.07430070693614649 ], [ 0.32359213045766705, -0.21679158147977234, 0.40467994067061236 ], [ -0.29162057081447856, -0.36730093234275374, 0.02469169889181322 ], [ 0.3752389888643795, 0.12053485889569299, 0.11578084106935654 ], [ -0.15080618223790737, 0.1988633587249931, -0.28303436183975444 ], [ 0.35506844598765525, 0.2946098657019099, 0.3570295256089225 ], [ 0.08947906686499901, 0.12651649133100756, -0.26140252162473565 ], [ 0.3768416925714971, 0.2620932938143902, -0.3004115856696554 ], [ 0.15086750872466342, -0.29066330238647775, 0.013118494967162164 ], [ 0.25790623705908405, 0.16062591372112917, -0.1329827462419909 ], [ -0.13412076009774782, 0.24452141956115708, -0.2877288830899173 ], [ 0.13941032539744308, -0.08434617749427098, 0.22735703056769901 ], [ -0.1901938695337407, -0.10404180707090865, -0.4369473593325823 ], [ 0.32969386130167105, 0.4315051269578822, -0.1958343739926446 ], [ 0.4196121876436721, -0.2647425360754139, -0.05258127768462506 ], [ 0.17156880016191794, 0.07281336618187934, -0.13356642180947143 ], [ 0.28142015368314904, -0.08605129052992416, -0.18185889915120013 ], [ 0.17654848961507946, 0.015153784026467776, 0.27295332442994985 ], [ 0.31672127753337437, -0.259289091085301, -0.014895813267613522 ] ],
    "biases" : [ 0.0, 0.0, 0.0, 0.0, 0.0, 0.0, 0.0, 0.0, 0.0, 0.0, 0.0, 0.0, 0.0, 0.0, 0.0, 0.0, 0.0, 0.0, 0.0, 0.0, 0.0, 0.0, 0.0, 0.0, 0.0, 0.0, 0.0, 0.0 ]
  }, {
    "size" : 2,
    "activationType" : "RELU",
    "weights" : [ [ -0.35056677659479574, -0.30158158930488216, 0.00416225865067521, -0.2004937410381761, 0.2795438703370654, -0.2342392263959827, -0.34618318082677024, 0.15915877078287133, -0.07400064016113178, -0.1932603487368006, 0.3032535568392285, 0.290959457118554, 0.028875450115435575, -0.18312932234769136, -0.4078939811193412, 0.31661550324245225, -0.31029504268667973, 0.35227213247946254, 0.2939263682991873, 0.37711158528803845, -0.4330707073511934, -0.08714418444945549, -0.06904493576751086, -0.15612455374792283, 0.0788189556458967, -0.18816827477430348, 0.11560514107675834, -0.41072878568235127 ], [ 0.03427349121838591, -0.3432795183582056, 0.4075451815194725, -0.06285892338204252, 0.31487726031796304, -0.3930443599922513, 0.31916743113021995, -0.3706473516549358, 0.028616184879079964, -0.2663429031569197, 0.31781825388086204, 0.055590510581553065, 0.15400076475715962, -0.25768938550741194, -0.3515885943290863, -0.1462330724682635, -0.3077277971220437, -0.08708259592779166, -0.06206816923188957, -0.09995386249482224, -0.3767556899374291, 0.3774939546075663, -0.2329880688605411, 0.08782652477461361, 0.0326339015713446, 0.2719562216159074, 0.07642286133795906, 0.11936083235466044 ] ],
    "biases" : [ 0.0, 0.0 ]
  }, {
    "size" : 4,
    "activationType" : "RELU",
    "weights" : [ [ -0.416426712488311, 0.956196929086844 ], [ 0.4501083527667673, 0.8390041272029793 ], [ -0.9799975493920954, 0.3513446709506016 ], [ 0.2249945657466761, -0.8845766133269588 ] ],
    "biases" : [ 0.0, 0.0, 0.0, 0.0 ]
  }, {
    "size" : 12,
    "activationType" : "RELU",
    "weights" : [ [ 0.460971906817234, 0.036542525767617184, 0.06177162031300465, -0.5731013625363248 ], [ -0.3507416194614821, 0.28817782584956997, 0.4155680731058289, 0.3191799944680508 ], [ 0.4396599507428942, 0.4696108315176233, 0.5632297240963893, 0.43467075338800143 ], [ 0.20513555325488164, -0.06727737646242105, 0.4251882630710879, -0.33231712173184946 ], [ 0.5932406043231226, 0.544884362847309, 0.31935391135038216, -0.0034767251368478247 ], [ -0.28619920086266937, 0.4001758830161797, -0.028573442036751384, -0.1744779679945101 ], [ 0.35517966842982573, 0.0019327240158967252, -0.3814907447739416, 0.0942912164460159 ], [ 0.41717005281455677, 0.3522720928216444, -0.4599689556847702, -0.0954349823381988 ], [ -0.18384239655677936, 0.45945069525582616, 0.022285317076543243, -0.5909326410486493 ], [ 0.5690264363990629, -0.03017368979366486, 0.04811196017562036, 0.19078129211260342 ], [ -0.18723336889996883, -0.178725528187555, -0.12755783145032668, 0.08337528458220467 ], [ -0.11226207724188275, -0.5968783448070435, -0.1933729891039735, -0.6071330404355556 ] ],
    "biases" : [ 0.0, 0.0, 0.0, 0.0, 0.0, 0.0, 0.0, 0.0, 0.0, 0.0, 0.0, 0.0 ]
  }, {
    "size" : 2,
    "activationType" : "SIGMOID",
    "weights" : [ [ -0.5267132400401515, -0.2674640072628224, 0.2781599157668898, 0.5263087348015767, -0.07578464129316342, 0.33267954844056535, -0.049912948455672956, -0.6408233737230935, 0.16780836199802796, -0.04256787955900432, 0.2545126077045189, -0.05041680066330834 ], [ -0.014625642404523576, -0.40659050592801055, 0.06592274086224303, -0.5426133032329827, -0.2228435989367833, 0.2878235724535113, 0.3812332646407428, 0.010405077627468118, 0.4568012165220867, 0.5551601379137694, -0.2866810702557721, 0.26032769264737 ] ],
    "biases" : [ 0.0, 0.0 ]
  } ]
}