{"layers":[{"size":3},{"size":28,"activationType":"RELU","weights":[[0.29512692728914797,0.003845238812776375,-0.43990607525983494],[0.1907110729523847,-0.25659902759667447,0.2217515001314761],[0.1970283053347331,0.3295378068455142,-0.21095891179698012],[0.32667055424654484,-0.1496621147586346,0.4012004048774363],[-0.22333928245277582,-0.14401361149668762,0.07418457786122828],[0.18310949037484375,-0.2234402987587956,-0.42438600625952144],[-0.3081129044579488,0.140351207138615,0.08303896280821982],[-0.22110316862392393,0.11194783061341368,0.02288068719690145],[0.37358116982042383,0.29071679124571354,0.036275635240939685],[-0.3253786969613154,-0.3618123235608993,-0.09080955631246701],[-0.29011546110981057,0.39701739626279836,-0.08091214323558615],[0.3128482586847689,0.33472532766788704,0.07839923273970989],[0.016955295832029038,-0.38660446415662664,-0.08296167234182283],[-0.25729773653555515,0.05284452137034512,-0.18186667464700196],[-0.056625855090428556,0.33782275187193495,0.26336479487799974],[0.3302672282605384,0.03297152515059548,0.22336589259865175],[-0.1389849297747041,0.2635787103216221,0.327388778133557],[0.02287871796802693,0.03786574949008109,0.03481406069141374],[-0.049510012491498556,-0.23306243979757058,0.15406564299433229],[0.3806869188604672,-0.026550113582874457,-0.16133394747263718],[0.21555476307096316,0.2933945081077522,-0.3370117554340828],[-0.34409427455600805,0.18664833951603804,-0.023357316426731334],[-0.11091618704074674,-0.19604673346426593,-0.28323510494103354],[-0.42469510705336505,-0.2798093364161261,-0.20522383918532783],[-0.16495097480979903,0.23885250855278067,0.20842266920990232],[-0.4140488071064521,-0.20296982156282292,-0.0014815411296512648],[-0.2324158501093751,-0.06344802561021351,-0.1994697970326403],[0.33553169342967754,-0.4234104364724944,0.03154371106870446]],"biases":[0.0,0.0,0.0,0.0,0.0,0.0,0.0,0.0,0.0,0.0,0.0,0.0,0.0,0.0,0.0,0.0,0.0,0.0,0.0,0.0,0.0,0.0,0.0,0.0,0.0,0.0,0.0,0.0]},{"size":2,"activationType":"RELU","weights":[[0.26847522101141164,-0.37974707400450003,-0.34282642646058,-0.19608431065922804,-0.2785841962010114,0.3796836428358159,0.13228750247572219,0.41543363357334373,0.3490836768381522,0.42330885421994113,0.3407995652627046,-0.17245737346314716,0.1548262771586757,-0.28845289392576345,0.159022937261163,0.0357479041006743,0.35344582509278333,0.23607520646795233,0.091572509713301,-0.22520193183207726,0.07363061872672738,-0.031999926849476557,-0.24513587897051767,-0.21596769345895803,-0.173315184035083,0.1784797569333776,0.2276037609215843,0.11761554673713703],[-0.06859596192466733,-0.2442788174278628,-0.3981322250757182,-0.16281909591489613,-0.365778974042495,-0.03689678045307904,-0.22103007077955297,-0.12754631203822547,0.44238611756363744,-0.16212718815699312,-0.05778999638098459,-0.06090606617022193,0.2755255606934066,0.23295846221484262,-0.03976364160954915,-0.30236798551582966,0.055029898103222785,0.41933206635789977,-0.22987798784272573,-0.14672542637402253,0.43325401671251473,-0.12243619934153355,0.1320842618854733,0.11201243636079361,-0.18070825844164756,0.40514545144758585,0.1555330261825093,0.3684106408030008]],"biases":[0.0,0.0]},{"size":4,"activationType":"RELU","weights":[[-0.25748914993480154,0.43364409545421734],[-0.02364542419119675,0.7628358605297685],[-0.9934098618284375,-0.4379796893581027],[0.8710908077368911,0.8694605300110625]],"biases":[0.0,0.0,0.0,0.0]},{"size":12,"activationType":"RELU","weights":[[0.48839620234492376,0.16792944345862038,-0.36112640528097156,0.5062233322884644],[0.21095183845098164,-0.4580119243375591,-0.44507361895890163,-0.4648706127032729],[-0.13434694304786565,0.44906439974943324,-0.06777164252819312,0.041218419580104415],[0.23107606278269166,0.4151101029832407,0.035304453353276144,-0.17861081080218116],[0.5561252225460043,0.2243396405470417,0.17272665387468722,0.03962465869640108],[-0.1798934782720471,0.5822429640528122,-0.5676157963387789,0.20088891815712684],[-0.17062267451235436,-0.5159157976208613,-0.2803400305193959,-0.28644462450408253],[0.4958333164067088,0.007842802379644742,-0.05311042869912619,-0.22490445047642832],[0.046349287937689776,0.32866487212169293,0.3709178439486822,-0.5119686297960877],[0.2797697888252034,0.56655343134501,-0.16845074717685804,-0.09674845878557636],[0.18276483816991573,-0.12647303283628014,-0.1841058815872193,-0.5131034459151856],[0.2979578017294564,0.2609899473129349,-0.10667281732234912,-0.22148979766166949]],"biases":[0.0,0.0,0.0,0.0,0.0,0.0,0.0,0.0,0.0,0.0,0.0,0.0]},{"size":2,"activationType":"SIGMOID","weights":[[0.6467515085067936,0.5405365318871975,-0.5693018530025199,-0.6460632968697432,0.12395330166967766,0.18679033672080225,0.18498059621603768,0.08524511753351538,0.14497174857785355,0.6032661957423537,0.3165451798829688,-0.12789349571570152],[-0.0323354148368018,0.4743243340460839,-0.3022300300470847,-0.08029026186254606,0.4397969303037297,-0.5122818748277818,-0.5758505128253915,-0.07531930568470879,-0.550947326601779,0.10614293503717331,0.35100390527168646,-0.4369036198015895]],"biases":[0.0,0.0]}]}