{
  "layers" : [ { }, {
    "activationType" : "RELU",
    "weights" : [ [ 0.41068876596533527, -0.24954860776704846, 0.36056815182925844 ], [ 0.27155527423054165, -0.23338441144892463, -0.059834313295473174 ], [ 0.22472719782296474, -0.16026300497735307, 0.3387040633183625 ], [ -0.029042620787323836, 0.05239366751129937, -0.30173854746625195 ], [ -0.2344275104668918, 0.20684417609057698, 0.07587466556113492 ], [ -0.39098240918777055, 0.18670334684653916, 0.21154626528982673 ], [ 0.26920749955474305, -0.008160678628797435, 0.4260759782664166 ], [ 0.28378588163713675, -0.18168959108542154, -0.1550387846645508 ], [ -0.4029193437282125, -0.3800084744562496, -0.2519722799538543 ], [ -0.38272314958608766, -0.14485180017930122, -0.3715483142086397 ], [ 0.31276397114062177, -0.3649970764796645, -0.09809637384079539 ], [ 0.2884497890400139, 0.33651408020314394, 0.3702573144513955 ], [ -0.11112647519330232, -0.42691326629471166, -0.39519084923254166 ], [ 0.16769524835267474, -0.043857214466208105, -0.07994566955688259 ], [ -0.2861140245294106, 0.42574163604204257, 0.2949470464287774 ], [ 0.37743113726437866, 0.09562739286807082, -0.3771459645936207 ], [ 0.3073401356714189, 0.3271547556272631, 0.032605641388768536 ], [ 0.0685860901349345, -0.4281581817452688, 0.4014824869896592 ], [ 0.11550515743476203, 0.3696047674790432, 0.06452890700923347 ], [ 0.32082870659332025, 0.15976710019984658, -0.07708175983678739 ], [ 0.21462185509074855, 0.15070667434775503, -0.3217439952028657 ], [ -0.07940757565363099, 0.32198575833281023, 0.22474253614190626 ], [ 0.04547967418551885, 0.025763087750223068, 0.27961367896348316 ], [ -0.42110832664073033, -0.43029718652941296, 0.3547911021345774 ], [ -0.07433577946895403, 0.08019631047019055, -0.03847860786888463 ], [ 0.28124281777716426, -0.28896122862057605, -0.06182234952384069 ], [ -0.2145343967493265, 0.08131840387259553, 0.38494469398092585 ], [ 0.2531677025344457, 0.14564379739012295, -0.12990736862602953 ] ],
    "biases" : [ 0.0, 0.0, 0.0, 0.0, 0.0, 0.0, 0.0, 0.0, 0.0, 0.0, 0.0, 0.0, 0.0, 0.0, 0.0, 0.0, 0.0, 0.0, 0.0, 0.0, 0.0, 0.0, 0.0, 0.0, 0.0, 0.0, 0.0, 0.0 ]
  }, {
    "activationType" : "RELU",
    "weights" : [ [ 0.3781680299291228, 0.36337324357594425, -0.42188736911243635, -0.2552108501832457, -0.3493668188940596, 0.19056569893083852, 0.34469349357813794, 0.19612029621959914, 0.16490041988630078, 0.21020579015388985, -0.19404091438390797, 0.40538156122629865, 0.11385290303024143, -0.020608021265237142, 0.2677677459786054, -0.335198208041, 0.3419400445424132, 0.2815454559324295, 0.3307361658411013, -0.28934975326336954, 0.43837630959984, 0.07008536198898829, 0.3292126772680053, 0.011579442992928679, -0.4306582820578235, 0.19503400846468422, -0.15745946230164537, -0.27835912656351286 ], [ 0.052862930885075876, -0.16564483770372707, -0.06220417102001641, 0.07533294138359292, -0.18906775960093541, 0.20134491952785494, -0.17471477342853425, -0.07949125134206003, -0.00827624188649223, -0.04204279590019894, 0.15139453200312514, -0.4251464710180738, -0.41506817030896637, 0.3365237224983444, -0.292222015108243, 0.30245660636346494, -0.09395396342501944, 0.28989085370314593, -0.3593216533045497, 0.1286329712537002, 0.14175694582960074, 0.1672645852835143, -0.10255643100960421, -0.3599659552363576, -0.3743065567948036, -0.38206463545684655, 0.3877556959059092, 0.419532152634119 ] ],
    "biases" : [ 0.0, 0.0 ]
  }, {
    "activationType" : "RELU",
    "weights" : [ [ 0.15098171199643629, -0.9232030260689854 ], [ 0.8325451032168867, 0.549307379171369 ], [ -0.49431718171500605, 0.33948853924231726 ], [ -0.2525453981764245, 0.7504233525424713 ] ],
    "biases" : [ 0.0, 0.0, 0.0, 0.0 ]
  }, {
    "activationType" : "RELU",
    "weights" : [ [ -0.5479871879522863, 0.0877386355759936, -0.03441317172038372, 0.2888168607815309 ], [ 0.6005294328745896, 0.04472460454119931, -0.07145859420779843, -0.21150860689823514 ], [ -0.5831519844319675, 0.4749198488566495, 0.4899386813835782, -0.37032932806210694 ], [ 0.1161196978795157, -0.30952946696490696, 0.10628497237336887, -0.238836203654337 ], [ 0.5634094058480892, 0.598735216152569, 0.07857301618900714, -0.4195510379903574 ], [ -0.06117909287633838, 0.1176241387532021, -0.4313800455112433, 0.04516239693637414 ], [ -0.44606767767353345, 0.029817272022882868, -0.5251181008679452, 0.31792944748590946 ], [ 0.38792167354644946, 0.10459378640805728, 0.5155467745018161, -0.24274343868008724 ], [ 0.300427880992997, 0.2038937066119767, -0.2693567494395606, 0.23723526927826333 ], [ 0.48518748567156855, 0.42592671856634734, -0.12128534977654187, 0.1382240444280023 ], [ 0.2839602793560355, -0.26306095006862645, 0.4040334543726618, 0.49287884314862795 ], [ 0.460794606160545, 0.39857892151448526, -0.47974587214910713, 0.1666724404074491 ] ],
    "biases" : [ 0.0, 0.0, 0.0, 0.0, 0.0, 0.0, 0.0, 0.0, 0.0, 0.0, 0.0, 0.0 ]
  }, {
    "activationType" : "SIGMOID",
    "weights" : [ [ -0.6056645180055121, 0.37498846940027364, 0.014116451110558259, 0.02248054244103992, -0.27245349677005615, 0.5706911875377239, 0.3174904104580806, 0.5884096044836424, 0.5027186992160295, 0.26480336413638395, -0.5960969294336214, -0.46217340138027097 ], [ 0.23367727330189447, -0.15185946950965035, 0.14396899863308532, -0.09458071182634675, 0.485328646765123, 0.428000237009146, -0.23368932560394196, -0.22642043468871914, 0.14188454377275272, 0.02043936653202727, 0.5443677885901534, 0.0874391672552638 ] ],
    "biases" : [ 0.0, 0.0 ]
  } ]
}